<?xml version="1.0"?>
<opencv_storage>
<cascade>
  <stageType>BOOST</stageType>
  <featureType>HAAR</featureType>
  <height>36</height>
  <width>36</width>
  <stageParams>
    <boostType>GAB</boostType>
    <minHitRate>9.9500000476837158e-01</minHitRate>
    <maxFalseAlarm>5.0000000000000000e-01</maxFalseAlarm>
    <weightTrimRate>9.4999998807907104e-01</weightTrimRate>
    <maxDepth>1</maxDepth>
    <maxWeakCount>100</maxWeakCount></stageParams>
  <featureParams>
    <maxCatCount>0</maxCatCount>
    <featSize>1</featSize>
    <mode>BASIC</mode></featureParams>
  <stageNum>10</stageNum>
  <stages>
    <!-- stage 0 -->
    <_>
      <maxWeakCount>1</maxWeakCount>
      <stageThreshold>9.6747964620590210e-01</stageThreshold>
      <weakClassifiers>
        <_>
          <internalNodes>
            0 -1 5 -7.8696953132748604e-03</internalNodes>
          <leafValues>
            9.6747964620590210e-01 -1.</leafValues></_></weakClassifiers></_>
    <!-- stage 1 -->
    <_>
      <maxWeakCount>2</maxWeakCount>
      <stageThreshold>-8.2911156117916107e-02</stageThreshold>
      <weakClassifiers>
        <_>
          <internalNodes>
            0 -1 8 3.4893382340669632e-02</internalNodes>
          <leafValues>
            -9.5555555820465088e-01 9.1869920492172241e-01</leafValues></_>
        <_>
          <internalNodes>
            0 -1 14 -3.7304558791220188e-03</internalNodes>
          <leafValues>
            8.7264442443847656e-01 -8.7496101856231689e-01</leafValues></_></weakClassifiers></_>
    <!-- stage 2 -->
    <_>
      <maxWeakCount>2</maxWeakCount>
      <stageThreshold>-1.9373373687267303e-01</stageThreshold>
      <weakClassifiers>
        <_>
          <internalNodes>
            0 -1 9 3.7380140274763107e-03</internalNodes>
          <leafValues>
            -9.6825397014617920e-01 8.0303031206130981e-01</leafValues></_>
        <_>
          <internalNodes>
            0 -1 3 3.6751441657543182e-03</internalNodes>
          <leafValues>
            -9.4929963350296021e-01 7.7452021837234497e-01</leafValues></_></weakClassifiers></_>
    <!-- stage 3 -->
    <_>
      <maxWeakCount>1</maxWeakCount>
      <stageThreshold>7.4100720882415771e-01</stageThreshold>
      <weakClassifiers>
        <_>
          <internalNodes>
            0 -1 0 -4.3338630348443985e-03</internalNodes>
          <leafValues>
            -1. 7.4100720882415771e-01</leafValues></_></weakClassifiers></_>
    <!-- stage 4 -->
    <_>
      <maxWeakCount>2</maxWeakCount>
      <stageThreshold>-1.5613758563995361e-01</stageThreshold>
      <weakClassifiers>
        <_>
          <internalNodes>
            0 -1 6 5.2544817328453064e-02</internalNodes>
          <leafValues>
            -8.4172660112380981e-01 8.4873950481414795e-01</leafValues></_>
        <_>
          <internalNodes>
            0 -1 12 -1.4007063582539558e-03</internalNodes>
          <leafValues>
            6.8558901548385620e-01 -1.</leafValues></_></weakClassifiers></_>
    <!-- stage 5 -->
    <_>
      <maxWeakCount>2</maxWeakCount>
      <stageThreshold>-3.3767861127853394e-01</stageThreshold>
      <weakClassifiers>
        <_>
          <internalNodes>
            0 -1 15 1.1698957532644272e-02</internalNodes>
          <leafValues>
            -9.6610170602798462e-01 6.9999998807907104e-01</leafValues></_>
        <_>
          <internalNodes>
            0 -1 1 -2.5185209233313799e-03</internalNodes>
          <leafValues>
            6.2842309474945068e-01 -1.</leafValues></_></weakClassifiers></_>
    <!-- stage 6 -->
    <_>
      <maxWeakCount>2</maxWeakCount>
      <stageThreshold>-8.6585305631160736e-02</stageThreshold>
      <weakClassifiers>
        <_>
          <internalNodes>
            0 -1 7 4.4138886034488678e-02</internalNodes>
          <leafValues>
            -8.8059699535369873e-01 8.2258063554763794e-01</leafValues></_>
        <_>
          <internalNodes>
            0 -1 10 -5.7347659021615982e-03</internalNodes>
          <leafValues>
            7.9401171207427979e-01 -8.9280152320861816e-01</leafValues></_></weakClassifiers></_>
    <!-- stage 7 -->
    <_>
      <maxWeakCount>2</maxWeakCount>
      <stageThreshold>-2.5135418772697449e-01</stageThreshold>
      <weakClassifiers>
        <_>
          <internalNodes>
            0 -1 11 -1.7400927026756108e-04</internalNodes>
          <leafValues>
            7.5939851999282837e-01 -9.3599998950958252e-01</leafValues></_>
        <_>
          <internalNodes>
            0 -1 2 -2.7761407545767725e-04</internalNodes>
          <leafValues>
            -1. 6.8464583158493042e-01</leafValues></_></weakClassifiers></_>
    <!-- stage 8 -->
    <_>
      <maxWeakCount>2</maxWeakCount>
      <stageThreshold>-5.0736464560031891e-02</stageThreshold>
      <weakClassifiers>
        <_>
          <internalNodes>
            0 -1 13 -5.1123555749654770e-04</internalNodes>
          <leafValues>
            9.2857140302658081e-01 -8.2191783189773560e-01</leafValues></_>
        <_>
          <internalNodes>
            0 -1 16 5.7999044656753540e-04</internalNodes>
          <leafValues>
            7.7118134498596191e-01 -9.7372347116470337e-01</leafValues></_></weakClassifiers></_>
    <!-- stage 9 -->
    <_>
      <maxWeakCount>2</maxWeakCount>
      <stageThreshold>-3.3135789632797241e-01</stageThreshold>
      <weakClassifiers>
        <_>
          <internalNodes>
            0 -1 17 4.4743902981281281e-04</internalNodes>
          <leafValues>
            6.5517240762710571e-01 -9.8230087757110596e-01</leafValues></_>
        <_>
          <internalNodes>
            0 -1 4 -1.8711754819378257e-03</internalNodes>
          <leafValues>
            6.5414983034133911e-01 -9.8653030395507813e-01</leafValues></_></weakClassifiers></_></stages>
  <features>
    <_>
      <rects>
        <_>
          1 0 30 32 -1.</_>
        <_>
          1 16 30 16 2.</_></rects>
      <tilted>0</tilted></_>
    <_>
      <rects>
        <_>
          1 21 31 9 -1.</_>
        <_>
          1 24 31 3 3.</_></rects>
      <tilted>0</tilted></_>
    <_>
      <rects>
        <_>
          3 30 3 6 -1.</_>
        <_>
          3 33 3 3 2.</_></rects>
      <tilted>0</tilted></_>
    <_>
      <rects>
        <_>
          4 19 19 6 -1.</_>
        <_>
          4 21 19 2 3.</_></rects>
      <tilted>0</tilted></_>
    <_>
      <rects>
        <_>
          6 17 19 6 -1.</_>
        <_>
          6 19 19 2 3.</_></rects>
      <tilted>0</tilted></_>
    <_>
      <rects>
        <_>
          8 30 17 6 -1.</_>
        <_>
          8 32 17 2 3.</_></rects>
      <tilted>0</tilted></_>
    <_>
      <rects>
        <_>
          9 0 17 12 -1.</_>
        <_>
          9 4 17 4 3.</_></rects>
      <tilted>0</tilted></_>
    <_>
      <rects>
        <_>
          10 0 14 12 -1.</_>
        <_>
          10 4 14 4 3.</_></rects>
      <tilted>0</tilted></_>
    <_>
      <rects>
        <_>
          10 0 18 12 -1.</_>
        <_>
          10 4 18 4 3.</_></rects>
      <tilted>0</tilted></_>
    <_>
      <rects>
        <_>
          11 12 12 4 -1.</_>
        <_>
          11 14 12 2 2.</_></rects>
      <tilted>0</tilted></_>
    <_>
      <rects>
        <_>
          15 9 11 6 -1.</_>
        <_>
          15 11 11 2 3.</_></rects>
      <tilted>0</tilted></_>
    <_>
      <rects>
        <_>
          17 18 18 3 -1.</_>
        <_>
          17 19 18 1 3.</_></rects>
      <tilted>0</tilted></_>
    <_>
      <rects>
        <_>
          17 22 14 4 -1.</_>
        <_>
          17 24 14 2 2.</_></rects>
      <tilted>0</tilted></_>
    <_>
      <rects>
        <_>
          19 0 4 2 -1.</_>
        <_>
          21 0 2 2 2.</_></rects>
      <tilted>0</tilted></_>
    <_>
      <rects>
        <_>
          19 5 12 2 -1.</_>
        <_>
          25 5 6 2 2.</_></rects>
      <tilted>0</tilted></_>
    <_>
      <rects>
        <_>
          20 0 10 8 -1.</_>
        <_>
          20 4 10 4 2.</_></rects>
      <tilted>0</tilted></_>
    <_>
      <rects>
        <_>
          29 5 6 12 -1.</_>
        <_>
          29 9 6 4 3.</_></rects>
      <tilted>0</tilted></_>
    <_>
      <rects>
        <_>
          35 3 1 21 -1.</_>
        <_>
          35 10 1 7 3.</_></rects>
      <tilted>0</tilted></_></features></cascade>
</opencv_storage>
